{
  "feature_means": [
    1.0,
    0.5267557397391369,
    0.8218041087962963,
    0.35711250500799424,
    4.327008101851852,
    2.495118634259259,
    14.441928530092593,
    1.9334403935185185,
    9.73507957175926,
    0.40790653935185184,
    1.5850086805555557,
    0.4068865740740741,
    0.5,
    0.1106467013888889,
    0.2295703125,
    0.2181175399085437,
    1.827136863425926,
    0.6019336741251092,
    3.799320023148148,
    -0.5283883101851852,
    25.856138599537037,
    0.5077907986111111,
    0.6296296296296297,
    0.2777777777777778,
    0.09259259259259259,
    0.20494212962962963,
    0.35185185185185186,
    4.327708333333334,
    26.363929398148148
  ],
  "feature_names": [
    "bias",
    "card_value_pct",
    "target_row_exists",
    "target_row_end_pct",
    "row_score",
    "row_len",
    "gap",
    "open_slots_before_take",
    "intervening_count",
    "low_reset_cost",
    "played_card_score",
    "dangerous_row",
    "hand_rank_pct",
    "run_middle_flag",
    "outlier_flag",
    "score_pressure",
    "immediate_penalty",
    "take_risk",
    "safe_after",
    "safe_gain",
    "danger_after",
    "danger_drop",
    "phase_early",
    "phase_mid",
    "phase_late",
    "trailing_flag",
    "opening_round_flag",
    "baseline_safe_future_count",
    "baseline_board_danger"
  ],
  "feature_scales": [
    1.0,
    0.2838517426551497,
    0.38267756083085913,
    0.2845148624422849,
    3.439034803135757,
    1.5004578440316008,
    14.478267611457989,
    1.6554797557076777,
    12.193301362894996,
    1.1267487634699023,
    1.2209062477928807,
    0.49125338666898866,
    0.346182747419626,
    0.31369413265411067,
    0.42055651715175274,
    0.3855453694737099,
    3.517823498551487,
    0.361683360028515,
    2.9220831848987006,
    1.9096682939026346,
    13.592244427794142,
    6.495742467668965,
    0.48290388186721617,
    0.44790320823580204,
    0.2898606637488036,
    0.4036593280629871,
    0.4775480354898495,
    3.373574829841475,
    14.930212380801338
  ],
  "model_type": "phase_linear_policy",
  "phase_keys": [
    "early",
    "mid",
    "late"
  ],
  "training_summary": {
    "best_epoch": 4745,
    "epochs": 5000,
    "l2": 0.0001,
    "learning_rate": 0.01,
    "num_candidates": 691200,
    "num_decisions": 115200,
    "phase_summaries": {
      "early": {
        "num_decisions": 51200,
        "total_example_weight": 18140.835714283745,
        "train_accuracy": 0.6509438584431112,
        "train_loss": 1.0945549495955202
      },
      "late": {
        "num_decisions": 25600,
        "total_example_weight": 9070.41785714343,
        "train_accuracy": 0.7738687814429672,
        "train_loss": 0.5375665584440479
      },
      "mid": {
        "num_decisions": 38400,
        "total_example_weight": 13605.626785714447,
        "train_accuracy": 0.723420374089816,
        "train_loss": 0.8012599850283187
      }
    },
    "teacher_labels": [
      "AZL",
      "CFC",
      "CFR",
      "CRS",
      "HFB",
      "HSP",
      "IMIT",
      "LFS",
      "LPRA",
      "RND"
    ],
    "total_example_weight": 40816.88035714286,
    "train_accuracy": 0.7024193465471553,
    "train_loss": 0.873779913386979
  },
  "weights_by_phase": {
    "early": [
      0.0,
      -0.06668287216599701,
      -0.08348646700202599,
      0.48086400368357485,
      -0.21612934337176,
      -0.2590780645303752,
      -1.0788838116010127,
      -0.18814727285240623,
      -1.186993061692532,
      -0.6070196157733253,
      0.06937338312068855,
      -0.2445329419911598,
      -0.3107854785936854,
      -0.11117453865164562,
      0.17965040703693536,
      4.405701492638443e-19,
      -0.909430426176165,
      -1.484432295500715,
      0.1224366621746581,
      0.1873467307898518,
      0.2669881544460465,
      -0.5586687391962776,
      3.5290659385998805e-19,
      -4.436820278468349e-19,
      -5.19810146479578e-19,
      3.3175200991547927e-19,
      3.5413962795699847e-19,
      -1.7270608758384123e-19,
      2.543055817053457e-19
    ],
    "late": [
      0.0,
      0.2374498154182774,
      0.14274521219067554,
      -0.026755795472736054,
      -0.22372057127021908,
      -0.1650399333035444,
      -0.46543408996838814,
      0.23428921867564706,
      -0.91863892556881,
      -0.0511863772421321,
      0.09269476743883856,
      -0.06682447786650907,
      -0.23731766855794473,
      -0.17851774726782832,
      0.30862203852663433,
      1.3399428797223519e-20,
      -0.7263192380742668,
      -0.8025109506596282,
      -0.08060757783718966,
      -0.12334186440939708,
      0.22597943273089455,
      -0.472858599401163,
      -6.291088793897686e-20,
      -1.289042092852313e-19,
      1.5430483495307439e-18,
      1.1719358068787258e-19,
      -2.0018868723357803e-19,
      4.924056496742814e-19,
      -4.0707506780426604e-19
    ],
    "mid": [
      0.0,
      0.35485137578694304,
      0.09219360965218522,
      -0.07864719912332344,
      -0.28560359838258637,
      -0.14341066731751334,
      -0.39619421902609175,
      0.1768256023286559,
      -1.432526635007715,
      -0.09577089263732842,
      -0.004696356652737366,
      -0.036810363715283664,
      -0.3450301459236954,
      -0.18481397515809087,
      0.2931437851592938,
      -6.83287406240438e-19,
      -1.0579202417942866,
      -0.9925316568863546,
      -0.06962716008206521,
      -0.10654015377312673,
      0.307705289354151,
      -0.6438687379377575,
      2.639776298924046e-20,
      5.855002902040212e-19,
      -8.407036865187703e-20,
      -8.079245210668486e-19,
      6.63423422196185e-20,
      5.399800946055301e-19,
      -1.1657755670161296e-20
    ]
  }
}
